n= 11921 

node), split, n, loss, yval, (yprob)
      * denotes terminal node

   1) root 11921 3719 0 (0.68802953 0.31197047)  
     2) BPWC_mul< 0.3602997 9717 2006 0 (0.79355768 0.20644232)  
       4) BPWC_add< 0.6910147 4557  212 0 (0.95347817 0.04652183) *
       5) BPWC_add>=0.6910147 5160 1794 0 (0.65232558 0.34767442)  
        10) BPWC_dif>=0.08623745 1227  272 0 (0.77832111 0.22167889) *
        11) BPWC_dif< 0.08623745 3933 1522 0 (0.61301805 0.38698195)  
          22) BPWC_add< 0.9778458 2517  795 0 (0.68414779 0.31585221) *
          23) BPWC_add>=0.9778458 1416  689 1 (0.48658192 0.51341808)  
            46) BPWC_add< 1.158727 1212  598 0 (0.50660066 0.49339934)  
              92) BPWC_add< 1.009965 390  172 0 (0.55897436 0.44102564)  
               184) BPWC_add>=0.9819026 336  140 0 (0.58333333 0.41666667) *
               185) BPWC_add< 0.9819026 54   22 1 (0.40740741 0.59259259) *
              93) BPWC_add>=1.009965 822  396 1 (0.48175182 0.51824818)  
               186) BPWC_mul>=0.2316522 206   92 0 (0.55339806 0.44660194)  
                 372) BPWC_dif< -0.2155795 154   61 0 (0.60389610 0.39610390) *
                 373) BPWC_dif>=-0.2155795 52   21 1 (0.40384615 0.59615385) *
               187) BPWC_mul< 0.2316522 616  282 1 (0.45779221 0.54220779)  
                 374) BPWC_dif>=-0.6758376 303  147 1 (0.48514851 0.51485149)  
                   748) BPWC_add>=1.039831 206  100 0 (0.51456311 0.48543689)  
                    1496) BPWC_add< 1.061524 64   22 0 (0.65625000 0.34375000) *
                    1497) BPWC_add>=1.061524 142   64 1 (0.45070423 0.54929577) *
                   749) BPWC_add< 1.039831 97   41 1 (0.42268041 0.57731959) *
                 375) BPWC_dif< -0.6758376 313  135 1 (0.43130990 0.56869010) *
            47) BPWC_add>=1.158727 204   75 1 (0.36764706 0.63235294) *
     3) BPWC_mul>=0.3602997 2204  491 1 (0.22277677 0.77722323)  
       6) BPWC_dif>=0.3637409 143   66 0 (0.53846154 0.46153846) *
       7) BPWC_dif< 0.3637409 2061  414 1 (0.20087336 0.79912664) *
